digraph Tree {
node [shape=box, style="filled, rounded", color="black", fontname="helvetica"] ;
edge [fontname="helvetica"] ;
0 [label="age <= 89.1\ngini = 0.507\nsamples = 196\nvalue = [129, 28, 39]\nclass = Biryani", fillcolor="#f0b78d"] ;
1 [label="age <= 87.75\ngini = 0.524\nsamples = 178\nvalue = [114, 28, 36]\nclass = Biryani", fillcolor="#f1ba92"] ;
0 -> 1 [labeldistance=2.5, labelangle=45, headlabel="True"] ;
2 [label="gender <= 0.5\ngini = 0.513\nsamples = 173\nvalue = [113, 28, 32]\nclass = Biryani", fillcolor="#f0b78d"] ;
1 -> 2 ;
3 [label="age <= 58.5\ngini = 0.365\nsamples = 32\nvalue = [25, 3, 4]\nclass = Biryani", fillcolor="#eca06a"] ;
2 -> 3 ;
4 [label="age <= 55.5\ngini = 0.41\nsamples = 19\nvalue = [14, 1, 4]\nclass = Biryani", fillcolor="#eeab7b"] ;
3 -> 4 ;
5 [label="age <= 45.5\ngini = 0.24\nsamples = 15\nvalue = [13, 1, 1]\nclass = Biryani", fillcolor="#e99355"] ;
4 -> 5 ;
6 [label="age <= 41.5\ngini = 0.5\nsamples = 6\nvalue = [4, 1, 1]\nclass = Biryani", fillcolor="#efb388"] ;
5 -> 6 ;
7 [label="gini = 0.0\nsamples = 3\nvalue = [3, 0, 0]\nclass = Biryani", fillcolor="#e58139"] ;
6 -> 7 ;
8 [label="age <= 44.0\ngini = 0.667\nsamples = 3\nvalue = [1, 1, 1]\nclass = Biryani", fillcolor="#ffffff"] ;
6 -> 8 ;
9 [label="gini = 0.0\nsamples = 1\nvalue = [0, 0, 1]\nclass = Samosa", fillcolor="#8139e5"] ;
8 -> 9 ;
10 [label="gini = 0.5\nsamples = 2\nvalue = [1, 1, 0]\nclass = Biryani", fillcolor="#ffffff"] ;
8 -> 10 ;
11 [label="gini = 0.0\nsamples = 9\nvalue = [9, 0, 0]\nclass = Biryani", fillcolor="#e58139"] ;
5 -> 11 ;
12 [label="age <= 56.5\ngini = 0.375\nsamples = 4\nvalue = [1, 0, 3]\nclass = Samosa", fillcolor="#ab7bee"] ;
4 -> 12 ;
13 [label="gini = 0.5\nsamples = 2\nvalue = [1, 0, 1]\nclass = Biryani", fillcolor="#ffffff"] ;
12 -> 13 ;
14 [label="gini = 0.0\nsamples = 2\nvalue = [0, 0, 2]\nclass = Samosa", fillcolor="#8139e5"] ;
12 -> 14 ;
15 [label="age <= 61.0\ngini = 0.26\nsamples = 13\nvalue = [11, 2, 0]\nclass = Biryani", fillcolor="#ea985d"] ;
3 -> 15 ;
16 [label="age <= 59.5\ngini = 0.444\nsamples = 3\nvalue = [2, 1, 0]\nclass = Biryani", fillcolor="#f2c09c"] ;
15 -> 16 ;
17 [label="gini = 0.0\nsamples = 1\nvalue = [1, 0, 0]\nclass = Biryani", fillcolor="#e58139"] ;
16 -> 17 ;
18 [label="gini = 0.5\nsamples = 2\nvalue = [1, 1, 0]\nclass = Biryani", fillcolor="#ffffff"] ;
16 -> 18 ;
19 [label="age <= 64.65\ngini = 0.18\nsamples = 10\nvalue = [9, 1, 0]\nclass = Biryani", fillcolor="#e88f4f"] ;
15 -> 19 ;
20 [label="gini = 0.0\nsamples = 5\nvalue = [5, 0, 0]\nclass = Biryani", fillcolor="#e58139"] ;
19 -> 20 ;
21 [label="age <= 67.5\ngini = 0.32\nsamples = 5\nvalue = [4, 1, 0]\nclass = Biryani", fillcolor="#eca06a"] ;
19 -> 21 ;
22 [label="gini = 0.5\nsamples = 2\nvalue = [1, 1, 0]\nclass = Biryani", fillcolor="#ffffff"] ;
21 -> 22 ;
23 [label="gini = 0.0\nsamples = 3\nvalue = [3, 0, 0]\nclass = Biryani", fillcolor="#e58139"] ;
21 -> 23 ;
24 [label="age <= 64.5\ngini = 0.54\nsamples = 141\nvalue = [88, 25, 28]\nclass = Biryani", fillcolor="#f1bc96"] ;
2 -> 24 ;
25 [label="age <= 63.5\ngini = 0.589\nsamples = 47\nvalue = [26, 8, 13]\nclass = Biryani", fillcolor="#f5cfb3"] ;
24 -> 25 ;
26 [label="age <= 54.5\ngini = 0.543\nsamples = 42\nvalue = [26, 7, 9]\nclass = Biryani", fillcolor="#f2be99"] ;
25 -> 26 ;
27 [label="age <= 53.5\ngini = 0.637\nsamples = 17\nvalue = [8, 4, 5]\nclass = Biryani", fillcolor="#f8e0ce"] ;
26 -> 27 ;
28 [label="age <= 49.0\ngini = 0.587\nsamples = 15\nvalue = [8, 2, 5]\nclass = Biryani", fillcolor="#f7d9c4"] ;
27 -> 28 ;
29 [label="gini = 0.0\nsamples = 2\nvalue = [2, 0, 0]\nclass = Biryani", fillcolor="#e58139"] ;
28 -> 29 ;
30 [label="age <= 51.5\ngini = 0.615\nsamples = 13\nvalue = [6, 2, 5]\nclass = Biryani", fillcolor="#fcefe6"] ;
28 -> 30 ;
31 [label="age <= 50.7\ngini = 0.594\nsamples = 8\nvalue = [3, 1, 4]\nclass = Samosa", fillcolor="#e6d7fa"] ;
30 -> 31 ;
32 [label="age <= 50.2\ngini = 0.612\nsamples = 7\nvalue = [3, 1, 3]\nclass = Biryani", fillcolor="#ffffff"] ;
31 -> 32 ;
33 [label="gini = 0.611\nsamples = 6\nvalue = [2, 1, 3]\nclass = Samosa", fillcolor="#e0cef8"] ;
32 -> 33 ;
34 [label="gini = 0.0\nsamples = 1\nvalue = [1, 0, 0]\nclass = Biryani", fillcolor="#e58139"] ;
32 -> 34 ;
35 [label="gini = 0.0\nsamples = 1\nvalue = [0, 0, 1]\nclass = Samosa", fillcolor="#8139e5"] ;
31 -> 35 ;
36 [label="age <= 52.5\ngini = 0.56\nsamples = 5\nvalue = [3, 1, 1]\nclass = Biryani", fillcolor="#f2c09c"] ;
30 -> 36 ;
37 [label="gini = 0.0\nsamples = 2\nvalue = [2, 0, 0]\nclass = Biryani", fillcolor="#e58139"] ;
36 -> 37 ;
38 [label="gini = 0.667\nsamples = 3\nvalue = [1, 1, 1]\nclass = Biryani", fillcolor="#ffffff"] ;
36 -> 38 ;
39 [label="gini = 0.0\nsamples = 2\nvalue = [0, 2, 0]\nclass = Pakora", fillcolor="#39e581"] ;
27 -> 39 ;
40 [label="age <= 58.5\ngini = 0.442\nsamples = 25\nvalue = [18, 3, 4]\nclass = Biryani", fillcolor="#eeab7b"] ;
26 -> 40 ;
41 [label="age <= 55.1\ngini = 0.245\nsamples = 7\nvalue = [6, 0, 1]\nclass = Biryani", fillcolor="#e9965a"] ;
40 -> 41 ;
42 [label="gini = 0.444\nsamples = 3\nvalue = [2, 0, 1]\nclass = Biryani", fillcolor="#f2c09c"] ;
41 -> 42 ;
43 [label="gini = 0.0\nsamples = 4\nvalue = [4, 0, 0]\nclass = Biryani", fillcolor="#e58139"] ;
41 -> 43 ;
44 [label="age <= 62.5\ngini = 0.5\nsamples = 18\nvalue = [12, 3, 3]\nclass = Biryani", fillcolor="#efb388"] ;
40 -> 44 ;
45 [label="age <= 59.5\ngini = 0.539\nsamples = 16\nvalue = [10, 3, 3]\nclass = Biryani", fillcolor="#f1bb94"] ;
44 -> 45 ;
46 [label="gini = 0.444\nsamples = 3\nvalue = [2, 1, 0]\nclass = Biryani", fillcolor="#f2c09c"] ;
45 -> 46 ;
47 [label="age <= 60.75\ngini = 0.544\nsamples = 13\nvalue = [8, 2, 3]\nclass = Biryani", fillcolor="#f2c09c"] ;
45 -> 47 ;
48 [label="gini = 0.611\nsamples = 6\nvalue = [3, 1, 2]\nclass = Biryani", fillcolor="#f8e0ce"] ;
47 -> 48 ;
49 [label="age <= 61.75\ngini = 0.449\nsamples = 7\nvalue = [5, 1, 1]\nclass = Biryani", fillcolor="#eeab7b"] ;
47 -> 49 ;
50 [label="gini = 0.0\nsamples = 1\nvalue = [1, 0, 0]\nclass = Biryani", fillcolor="#e58139"] ;
49 -> 50 ;
51 [label="gini = 0.5\nsamples = 6\nvalue = [4, 1, 1]\nclass = Biryani", fillcolor="#efb388"] ;
49 -> 51 ;
52 [label="gini = 0.0\nsamples = 2\nvalue = [2, 0, 0]\nclass = Biryani", fillcolor="#e58139"] ;
44 -> 52 ;
53 [label="gini = 0.32\nsamples = 5\nvalue = [0, 1, 4]\nclass = Samosa", fillcolor="#a06aec"] ;
25 -> 53 ;
54 [label="age <= 67.5\ngini = 0.507\nsamples = 94\nvalue = [62, 17, 15]\nclass = Biryani", fillcolor="#f0b58b"] ;
24 -> 54 ;
55 [label="age <= 65.5\ngini = 0.198\nsamples = 9\nvalue = [8, 1, 0]\nclass = Biryani", fillcolor="#e89152"] ;
54 -> 55 ;
56 [label="gini = 0.278\nsamples = 6\nvalue = [5, 1, 0]\nclass = Biryani", fillcolor="#ea9a61"] ;
55 -> 56 ;
57 [label="gini = 0.0\nsamples = 3\nvalue = [3, 0, 0]\nclass = Biryani", fillcolor="#e58139"] ;
55 -> 57 ;
58 [label="age <= 86.5\ngini = 0.53\nsamples = 85\nvalue = [54, 16, 15]\nclass = Biryani", fillcolor="#f1ba92"] ;
54 -> 58 ;
59 [label="age <= 68.25\ngini = 0.538\nsamples = 83\nvalue = [52, 16, 15]\nclass = Biryani", fillcolor="#f1bb95"] ;
58 -> 59 ;
60 [label="gini = 0.568\nsamples = 9\nvalue = [5, 3, 1]\nclass = Biryani", fillcolor="#f6d5bd"] ;
59 -> 60 ;
61 [label="age <= 70.5\ngini = 0.53\nsamples = 74\nvalue = [47, 13, 14]\nclass = Biryani", fillcolor="#f1ba92"] ;
59 -> 61 ;
62 [label="age <= 69.25\ngini = 0.219\nsamples = 8\nvalue = [7, 0, 1]\nclass = Biryani", fillcolor="#e99355"] ;
61 -> 62 ;
63 [label="gini = 0.0\nsamples = 1\nvalue = [1, 0, 0]\nclass = Biryani", fillcolor="#e58139"] ;
62 -> 63 ;
64 [label="gini = 0.245\nsamples = 7\nvalue = [6, 0, 1]\nclass = Biryani", fillcolor="#e9965a"] ;
62 -> 64 ;
65 [label="age <= 73.5\ngini = 0.555\nsamples = 66\nvalue = [40, 13, 13]\nclass = Biryani", fillcolor="#f2bf9a"] ;
61 -> 65 ;
66 [label="age <= 72.8\ngini = 0.653\nsamples = 7\nvalue = [2, 3, 2]\nclass = Pakora", fillcolor="#d7fae6"] ;
65 -> 66 ;
67 [label="age <= 72.1\ngini = 0.611\nsamples = 6\nvalue = [2, 3, 1]\nclass = Pakora", fillcolor="#cef8e0"] ;
66 -> 67 ;
68 [label="age <= 71.25\ngini = 0.625\nsamples = 4\nvalue = [2, 1, 1]\nclass = Biryani", fillcolor="#f6d5bd"] ;
67 -> 68 ;
69 [label="gini = 0.5\nsamples = 2\nvalue = [0, 1, 1]\nclass = Pakora", fillcolor="#ffffff"] ;
68 -> 69 ;
70 [label="gini = 0.0\nsamples = 2\nvalue = [2, 0, 0]\nclass = Biryani", fillcolor="#e58139"] ;
68 -> 70 ;
71 [label="gini = 0.0\nsamples = 2\nvalue = [0, 2, 0]\nclass = Pakora", fillcolor="#39e581"] ;
67 -> 71 ;
72 [label="gini = 0.0\nsamples = 1\nvalue = [0, 0, 1]\nclass = Samosa", fillcolor="#8139e5"] ;
66 -> 72 ;
73 [label="age <= 74.5\ngini = 0.522\nsamples = 59\nvalue = [38, 10, 11]\nclass = Biryani", fillcolor="#f0b890"] ;
65 -> 73 ;
74 [label="gini = 0.0\nsamples = 5\nvalue = [5, 0, 0]\nclass = Biryani", fillcolor="#e58139"] ;
73 -> 74 ;
75 [label="age <= 85.5\ngini = 0.551\nsamples = 54\nvalue = [33, 10, 11]\nclass = Biryani", fillcolor="#f2bf9a"] ;
73 -> 75 ;
76 [label="age <= 84.25\ngini = 0.538\nsamples = 48\nvalue = [30, 8, 10]\nclass = Biryani", fillcolor="#f1bd97"] ;
75 -> 76 ;
77 [label="age <= 83.5\ngini = 0.563\nsamples = 42\nvalue = [25, 8, 9]\nclass = Biryani", fillcolor="#f2c29f"] ;
76 -> 77 ;
78 [label="age <= 82.5\ngini = 0.559\nsamples = 40\nvalue = [24, 7, 9]\nclass = Biryani", fillcolor="#f2c29f"] ;
77 -> 78 ;
79 [label="age <= 81.75\ngini = 0.567\nsamples = 39\nvalue = [23, 7, 9]\nclass = Biryani", fillcolor="#f3c4a3"] ;
78 -> 79 ;
80 [label="age <= 79.5\ngini = 0.545\nsamples = 34\nvalue = [21, 6, 7]\nclass = Biryani", fillcolor="#f2be98"] ;
79 -> 80 ;
81 [label="age <= 78.5\ngini = 0.589\nsamples = 25\nvalue = [14, 5, 6]\nclass = Biryani", fillcolor="#f4caac"] ;
80 -> 81 ;
82 [label="age <= 75.5\ngini = 0.566\nsamples = 22\nvalue = [13, 4, 5]\nclass = Biryani", fillcolor="#f3c4a2"] ;
81 -> 82 ;
83 [label="gini = 0.625\nsamples = 8\nvalue = [4, 2, 2]\nclass = Biryani", fillcolor="#f6d5bd"] ;
82 -> 83 ;
84 [label="age <= 77.5\ngini = 0.52\nsamples = 14\nvalue = [9, 2, 3]\nclass = Biryani", fillcolor="#f1ba93"] ;
82 -> 84 ;
85 [label="age <= 76.5\ngini = 0.449\nsamples = 7\nvalue = [5, 1, 1]\nclass = Biryani", fillcolor="#eeab7b"] ;
84 -> 85 ;
86 [label="gini = 0.56\nsamples = 5\nvalue = [3, 1, 1]\nclass = Biryani", fillcolor="#f2c09c"] ;
85 -> 86 ;
87 [label="gini = 0.0\nsamples = 2\nvalue = [2, 0, 0]\nclass = Biryani", fillcolor="#e58139"] ;
85 -> 87 ;
88 [label="gini = 0.571\nsamples = 7\nvalue = [4, 1, 2]\nclass = Biryani", fillcolor="#f5cdb0"] ;
84 -> 88 ;
89 [label="gini = 0.667\nsamples = 3\nvalue = [1, 1, 1]\nclass = Biryani", fillcolor="#ffffff"] ;
81 -> 89 ;
90 [label="age <= 80.5\ngini = 0.37\nsamples = 9\nvalue = [7, 1, 1]\nclass = Biryani", fillcolor="#eca06a"] ;
80 -> 90 ;
91 [label="gini = 0.449\nsamples = 7\nvalue = [5, 1, 1]\nclass = Biryani", fillcolor="#eeab7b"] ;
90 -> 91 ;
92 [label="gini = 0.0\nsamples = 2\nvalue = [2, 0, 0]\nclass = Biryani", fillcolor="#e58139"] ;
90 -> 92 ;
93 [label="gini = 0.64\nsamples = 5\nvalue = [2, 1, 2]\nclass = Biryani", fillcolor="#ffffff"] ;
79 -> 93 ;
94 [label="gini = 0.0\nsamples = 1\nvalue = [1, 0, 0]\nclass = Biryani", fillcolor="#e58139"] ;
78 -> 94 ;
95 [label="gini = 0.5\nsamples = 2\nvalue = [1, 1, 0]\nclass = Biryani", fillcolor="#ffffff"] ;
77 -> 95 ;
96 [label="age <= 84.75\ngini = 0.278\nsamples = 6\nvalue = [5, 0, 1]\nclass = Biryani", fillcolor="#ea9a61"] ;
76 -> 96 ;
97 [label="gini = 0.0\nsamples = 1\nvalue = [1, 0, 0]\nclass = Biryani", fillcolor="#e58139"] ;
96 -> 97 ;
98 [label="gini = 0.32\nsamples = 5\nvalue = [4, 0, 1]\nclass = Biryani", fillcolor="#eca06a"] ;
96 -> 98 ;
99 [label="gini = 0.611\nsamples = 6\nvalue = [3, 2, 1]\nclass = Biryani", fillcolor="#f8e0ce"] ;
75 -> 99 ;
100 [label="gini = 0.0\nsamples = 2\nvalue = [2, 0, 0]\nclass = Biryani", fillcolor="#e58139"] ;
58 -> 100 ;
101 [label="age <= 88.1\ngini = 0.32\nsamples = 5\nvalue = [1, 0, 4]\nclass = Samosa", fillcolor="#a06aec"] ;
1 -> 101 ;
102 [label="gini = 0.375\nsamples = 4\nvalue = [1, 0, 3]\nclass = Samosa", fillcolor="#ab7bee"] ;
101 -> 102 ;
103 [label="gini = 0.0\nsamples = 1\nvalue = [0, 0, 1]\nclass = Samosa", fillcolor="#8139e5"] ;
101 -> 103 ;
104 [label="gender <= 0.5\ngini = 0.278\nsamples = 18\nvalue = [15, 0, 3]\nclass = Biryani", fillcolor="#ea9a61"] ;
0 -> 104 [labeldistance=2.5, labelangle=-45, headlabel="False"] ;
105 [label="gini = 0.0\nsamples = 1\nvalue = [0, 0, 1]\nclass = Samosa", fillcolor="#8139e5"] ;
104 -> 105 ;
106 [label="age <= 116.0\ngini = 0.208\nsamples = 17\nvalue = [15, 0, 2]\nclass = Biryani", fillcolor="#e89253"] ;
104 -> 106 ;
107 [label="gini = 0.0\nsamples = 13\nvalue = [13, 0, 0]\nclass = Biryani", fillcolor="#e58139"] ;
106 -> 107 ;
108 [label="age <= 132.5\ngini = 0.5\nsamples = 4\nvalue = [2, 0, 2]\nclass = Biryani", fillcolor="#ffffff"] ;
106 -> 108 ;
109 [label="gini = 0.0\nsamples = 1\nvalue = [0, 0, 1]\nclass = Samosa", fillcolor="#8139e5"] ;
108 -> 109 ;
110 [label="age <= 148.0\ngini = 0.444\nsamples = 3\nvalue = [2, 0, 1]\nclass = Biryani", fillcolor="#f2c09c"] ;
108 -> 110 ;
111 [label="gini = 0.0\nsamples = 1\nvalue = [1, 0, 0]\nclass = Biryani", fillcolor="#e58139"] ;
110 -> 111 ;
112 [label="age <= 170.0\ngini = 0.5\nsamples = 2\nvalue = [1, 0, 1]\nclass = Biryani", fillcolor="#ffffff"] ;
110 -> 112 ;
113 [label="gini = 0.0\nsamples = 1\nvalue = [0, 0, 1]\nclass = Samosa", fillcolor="#8139e5"] ;
112 -> 113 ;
114 [label="gini = 0.0\nsamples = 1\nvalue = [1, 0, 0]\nclass = Biryani", fillcolor="#e58139"] ;
112 -> 114 ;
}